1.387454986572265625e+00 -1.380580961704254150e-01 5.464482903480529785e-01 1.954583227634429932e-01 -7.792228460311889648e-01 -8.556181788444519043e-01 -1.972364068031311035e+00 5.025756955146789551e-01 -2.166145667433738708e-02 -1.451764702796936035e-01
6.399369835853576660e-01 -3.462672699242830276e-03 7.094313502311706543e-01 5.771289020776748657e-02 5.967010259628295898e-01 7.667193412780761719e-01 2.608485221862792969e-01 8.008750677108764648e-01 -1.507109552621841431e-01 -9.650065004825592041e-02
-1.316236257553100586e+00 -5.392203330993652344e-01 -3.920049667358398438e-01 8.744163513183593750e-01 -1.919113397598266602e-01 -2.256999492645263672e+00 -2.213254451751708984e+00 1.020358562469482422e+00 5.174250006675720215e-01 -1.091023012995719910e-01
-3.867352008819580078e-01 -1.000304818153381348e+00 4.200809299945831299e-01 -2.348509430885314941e-01 -8.681603670120239258e-01 -1.568090558052062988e+00 -3.448193669319152832e-01 -1.114472389221191406e+00 3.095066845417022705e-01 -1.461812257766723633e-01
-5.642044357955455780e-03 -1.008201614022254944e-01 7.136036753654479980e-01 6.361868977546691895e-01 1.393285632133483887e+00 8.365997672080993652e-01 -6.373669207096099854e-02 -1.114568114280700684e+00 1.153434395790100098e+00 -3.112026751041412354e-01
-2.588983774185180664e-01 2.516938559710979462e-02 -6.429350376129150391e-01 1.231524944305419922e+00 -2.344871684908866882e-02 1.421281099319458008e-01 -5.045452713966369629e-01 -9.106963276863098145e-01 5.012324452400207520e-01 -1.055540591478347778e-01
6.819775700569152832e-01 -8.861219882965087891e-01 3.307954668998718262e-01 8.178365230560302734e-02 -1.764317393302917480e+00 -1.270896911621093750e+00 -5.267636775970458984e-01 -1.317540407180786133e+00 -1.593240022659301758e+00 -1.638167202472686768e-01
1.496737003326416016e-01 1.135512351989746094e+00 -2.039896965026855469e+00 -7.237006723880767822e-02 -8.413630723953247070e-02 -1.390043497085571289e+00 -1.345333337783813477e+00 6.493355035781860352e-01 1.135471343994140625e+00 -2.067928016185760498e-01
-2.265493154525756836e+00 -1.737149059772491455e-01 -6.977372765541076660e-01 -3.592246472835540771e-01 -1.775843143463134766e+00 -1.036228090524673462e-01 3.483992815017700195e-01 2.651916742324829102e-01 6.259428858757019043e-01 1.315524894744157791e-02
-1.064480662345886230e+00 -1.110901713371276855e+00 6.540017127990722656e-01 3.287436366081237793e-01 6.571680903434753418e-01 -1.059742331504821777e+00 -4.708915650844573975e-01 -1.719173908233642578e+00 1.301547050476074219e+00 -2.076759338378906250e-01
8.018668740987777710e-02 -8.402246236801147461e-01 1.337764263153076172e+00 4.179255366325378418e-01 5.484539270401000977e-01 1.405455946922302246e+00 4.319098293781280518e-01 -1.608561992645263672e+00 6.432225108146667480e-01 -2.239645421504974365e-01
5.988529324531555176e-01 4.334843456745147705e-01 1.819389909505844116e-01 1.001004934310913086e+00 1.301975727081298828e+00 -1.170105695724487305e+00 -1.358683347702026367e+00 6.206033229827880859e-01 1.554518006742000580e-02 -3.302113413810729980e-01
3.850320577621459961e-01 2.395857423543930054e-01 -7.702882885932922363e-01 1.153032064437866211e+00 7.479192614555358887e-01 -8.505282402038574219e-01 -5.842134952545166016e-01 -1.046750783920288086e+00 -3.818165063858032227e-01 -1.926053762435913086e-01
1.073465824127197266e+00 -9.826685190200805664e-01 6.783606410026550293e-01 -9.970903992652893066e-01 -1.596689224243164062e+00 -2.271832704544067383e+00 -1.458639621734619141e+00 2.721534967422485352e-01 -2.183338701725006104e-01 9.464941173791885376e-02
7.678875923156738281e-01 8.418317437171936035e-01 -1.095544934272766113e+00 -1.170073032379150391e+00 -1.458526372909545898e+00 9.451398849487304688e-01 5.152816772460937500e-01 -1.066534042358398438e+00 1.691329032182693481e-01 -1.375784873962402344e-01
-7.874692678451538086e-01 5.979236364364624023e-01 -8.360559120774269104e-03 6.399935483932495117e-01 3.857221305370330811e-01 4.669621884822845459e-01 -1.656874269247055054e-01 1.997508525848388672e+00 -9.642190933227539062e-01 -5.580275505781173706e-02
-1.952664256095886230e+00 -9.615475535392761230e-01 5.156943798065185547e-01 1.047423481941223145e+00 9.610237926244735718e-02 6.381329298019409180e-01 8.953909277915954590e-01 -1.913326382637023926e-01 -1.380858182907104492e+00 1.004408150911331177e-01
-1.789484620094299316e-01 4.107835888862609863e-01 3.826033174991607666e-01 -6.915108561515808105e-01 1.167556285858154297e+00 3.818356692790985107e-01 3.202244639396667480e-01 -1.279301881790161133e+00 1.472040534019470215e+00 3.664502128958702087e-02
2.335305809974670410e-01 3.695760369300842285e-01 -6.511740088462829590e-01 -9.782242178916931152e-01 -1.605269163846969604e-01 -1.179017573595046997e-01 5.149703621864318848e-01 -1.162098050117492676e+00 6.348713040351867676e-01 -1.380785256624221802e-01
1.074429988861083984e+00 6.657870411872863770e-01 -1.031452536582946777e+00 -1.311603188514709473e+00 -1.947920322418212891e-01 -1.920166254043579102e+00 -2.170776605606079102e+00 2.900674343109130859e-01 9.419768452644348145e-01 4.268529638648033142e-02
2.047667801380157471e-01 3.340960666537284851e-02 1.040510773658752441e+00 -1.428156644105911255e-01 1.535062432289123535e+00 3.153473436832427979e-01 7.056573033332824707e-01 -1.047739982604980469e+00 -7.069426774978637695e-02 8.715446293354034424e-02
1.189142614603042603e-01 7.088760137557983398e-01 2.598871290683746338e-01 -1.141599178314208984e+00 -7.071508765220642090e-01 1.725136637687683105e+00 9.161508679389953613e-01 6.504722833633422852e-01 1.674956679344177246e-01 4.722413048148155212e-02
6.335394829511642456e-02 -1.095481276512145996e+00 6.852153539657592773e-01 3.740676492452621460e-02 -1.234775781631469727e+00 -1.800619959831237793e-01 4.939752817153930664e-02 -1.319364607334136963e-01 -1.598869681358337402e+00 -2.568638920783996582e-01
4.658429920673370361e-01 -9.084439277648925781e-01 1.125923871994018555e+00 -1.200057744979858398e+00 -3.949270546436309814e-01 7.351861149072647095e-02 9.373806715011596680e-01 -1.505487680435180664e+00 -1.359928727149963379e+00 -4.454071819782257080e-02
-9.811718463897705078e-01 9.548703432083129883e-01 -1.410194993019104004e+00 1.637625575065612793e+00 1.221921920776367188e+00 -1.084935188293457031e+00 -1.529293179512023926e+00 1.651453852653503418e+00 -8.792374134063720703e-01 -1.178650334477424622e-01
-1.318171381950378418e+00 8.886576890945434570e-01 -1.127100706100463867e+00 -4.085307121276855469e-01 -1.359235644340515137e+00 1.889025449752807617e+00 1.808989644050598145e+00 7.150158882141113281e-01 -1.159134864807128906e+00 -1.032058447599411011e-01
-9.609612226486206055e-01 8.927679061889648438e-01 -1.367622137069702148e+00 1.523127079010009766e+00 9.856552481651306152e-01 -1.186416745185852051e+00 -1.504898548126220703e+00 1.588520884513854980e+00 -8.587169051170349121e-01 8.580899983644485474e-02
-1.261197447776794434e+00 1.101162314414978027e+00 -1.262362480163574219e+00 -4.612217545509338379e-01 -9.346933364868164062e-01 1.865153312683105469e+00 1.792919874191284180e+00 1.148724555969238281e+00 -1.237005829811096191e+00 -4.225762560963630676e-03
1.201530620455741882e-01 -1.146867394447326660e+00 7.516648769378662109e-01 9.896217286586761475e-02 -1.553570508956909180e+00 9.383483976125717163e-02 -2.201136946678161621e-02 3.493632003664970398e-02 -1.657329559326171875e+00 2.411218918859958649e-02
5.482218861579895020e-01 -9.350147247314453125e-01 1.044440865516662598e+00 -9.848248958587646484e-01 -2.643668949604034424e-01 -1.723269075155258179e-01 8.567301630973815918e-01 -1.250632882118225098e+00 -1.641049265861511230e+00 -3.665926307439804077e-02
2.410555481910705566e-01 2.588785886764526367e-01 7.902972698211669922e-01 -5.954091623425483704e-02 1.667009472846984863e+00 5.965247750282287598e-02 6.841870546340942383e-01 -1.406438708305358887e+00 -1.405305415391921997e-01 -1.332008987665176392e-01
2.552545964717864990e-01 8.613268136978149414e-01 1.181056648492813110e-01 -1.358977794647216797e+00 -4.853972196578979492e-01 1.716987133026123047e+00 9.954900741577148438e-01 8.278706669807434082e-01 1.979273371398448944e-02 8.983393199741840363e-03
1.329683810472488403e-01 3.847662806510925293e-01 -7.384337186813354492e-01 -1.326927304267883301e+00 -4.884361326694488525e-01 1.677475571632385254e-01 6.246649622917175293e-01 -1.158562898635864258e+00 7.843599319458007812e-01 -2.968504428863525391e-01
1.020237088203430176e+00 1.004797697067260742e+00 -1.238665938377380371e+00 -1.235487580299377441e+00 5.020447075366973877e-02 -1.891349792480468750e+00 -2.132072925567626953e+00 4.343012273311614990e-01 1.113827943801879883e+00 -1.571681648492813110e-01
4.631125926971435547e-01 -9.533107876777648926e-01 1.086989879608154297e+00 -1.045586347579956055e+00 -4.236557185649871826e-01 -1.240906491875648499e-01 9.938701987266540527e-01 -1.748861551284790039e+00 -1.759277820587158203e+00 -8.518766611814498901e-02
1.791218854486942291e-02 -1.097605109214782715e+00 7.093378305435180664e-01 1.571728289127349854e-01 -1.352411985397338867e+00 1.056119129061698914e-01 1.395957171916961670e-01 5.046384781599044800e-02 -1.424485802650451660e+00 -2.766797244548797607e-01
-1.064484953880310059e+00 1.032864928245544434e+00 -1.112090706825256348e+00 -3.583340942859649658e-01 -9.487282633781433105e-01 1.841691255569458008e+00 1.832967519760131836e+00 7.886073589324951172e-01 -1.127508759498596191e+00 -2.146676331758499146e-01
-7.890276908874511719e-01 1.035036087036132812e+00 -1.416522502899169922e+00 1.491177797317504883e+00 1.097334742546081543e+00 -1.080706119537353516e+00 -1.319730162620544434e+00 1.494769930839538574e+00 -8.504283428192138672e-01 -3.218878805637359619e-01
1.056313037872314453e+00 1.002089858055114746e+00 -1.107277154922485352e+00 -1.306060910224914551e+00 3.396051377058029175e-02 -1.627793788909912109e+00 -2.100602626800537109e+00 3.112317919731140137e-01 1.151910185813903809e+00 -3.222355246543884277e-01
3.048419952392578125e-01 5.357094407081604004e-01 -7.846538424491882324e-01 -1.083638429641723633e+00 -3.417144417762756348e-01 2.936296164989471436e-01 6.865243911743164062e-01 -1.066862940788269043e+00 8.646479845046997070e-01 6.306284107267856598e-03
3.004732429981231689e-01 7.445054650306701660e-01 1.796636283397674561e-01 -1.549568891525268555e+00 -6.378859877586364746e-01 1.814076066017150879e+00 1.002870321273803711e+00 6.688124537467956543e-01 3.345839977264404297e-01 -6.706901639699935913e-02
3.546470105648040771e-01 3.026968538761138916e-01 8.006681799888610840e-01 7.818776369094848633e-02 1.703595995903015137e+00 7.359060645103454590e-02 6.834167838096618652e-01 -1.170671701431274414e+00 -3.411048948764801025e-01 -3.478449285030364990e-01
