-8.683142066001892090e-01 1.794187068939208984e+00 -6.071804165840148926e-01 1.106732606887817383e+00 -2.320153951644897461e+00 9.515035152435302734e-01 -8.829386234283447266e-01
2.014799267053604126e-01 -1.541661858558654785e+00 -2.759492635726928711e+00 -9.032736420631408691e-01 2.280615091323852539e+00 -2.400659799575805664e+00 8.795599341392517090e-01
-8.021998405456542969e-02 -1.607350349426269531e+00 -2.210965633392333984e+00 3.031360507011413574e-01 2.710536956787109375e+00 -2.022841930389404297e+00 6.939247250556945801e-01
-7.924048900604248047e-01 4.217385053634643555e-01 -3.424870967864990234e+00 8.398495912551879883e-01 -2.625258266925811768e-01 -2.212027549743652344e+00 2.424759387969970703e+00
-1.311215043067932129e+00 4.837945699691772461e-01 1.924652814865112305e+00 -2.234210014343261719e+00 -2.506137371063232422e+00 1.646438479423522949e+00 -3.549926996231079102e+00
-1.369083166122436523e+00 5.545822381973266602e-01 3.939678907394409180e+00 -1.380299687385559082e+00 -2.122031688690185547e+00 -2.518243551254272461e+00 -3.753541231155395508e+00
-7.522764801979064941e-01 -3.032988607883453369e-01 -4.580894470214843750e+00 8.621186017990112305e-01 -1.210144281387329102e+00 1.533871412277221680e+00 1.903952717781066895e+00
-2.039769649505615234e+00 -2.669331550598144531e+00 -8.278557658195495605e-01 1.521024346351623535e+00 -3.090436935424804688e+00 2.442178010940551758e+00 -2.923782348632812500e+00
-1.668577909469604492e+00 -2.130528450012207031e+00 -3.021626949310302734e+00 1.828580260276794434e+00 -1.409392237663269043e+00 -7.962174713611602783e-02 1.583355545997619629e+00
6.887183059006929398e-03 -2.374995946884155273e-01 3.917702436447143555e-01 3.650077879428863525e-01 -7.954771071672439575e-02 3.424496054649353027e-01 2.242493629455566406e-01
