1.753426790237426758e-01 -3.692895546555519104e-02 -9.806071221828460693e-02 -1.509979516267776489e-01 3.237890452146530151e-02 3.958134651184082031e-01 -2.058884501457214355e-01 5.762217938899993896e-02 -2.003150880336761475e-01 -1.706429868936538696e-01 -5.053464695811271667e-02 6.558783054351806641e-01 7.522567361593246460e-02 -1.660502552986145020e-01 2.028000950813293457e-01 -5.337040871381759644e-02 -3.229072391986846924e-01 2.332262694835662842e-02 1.085052639245986938e-01 -4.747912287712097168e-03
-3.960136696696281433e-02 5.757087841629981995e-02 -1.867287307977676392e-01 -6.881281733512878418e-02 -7.298259139060974121e-01 1.717514097690582275e-01 -1.215039864182472229e-01 1.187604740262031555e-01 -1.882225647568702698e-02 9.520524740219116211e-02 1.287498325109481812e-01 -7.793837226927280426e-03 -5.978164076805114746e-02 1.259306222200393677e-01 -1.443744301795959473e-01 7.412667274475097656e-01 1.402436941862106323e-01 1.948953270912170410e-01 -1.789348199963569641e-02 8.426369167864322662e-03
2.806297689676284790e-02 3.735454678535461426e-01 3.020683526992797852e-01 -1.735424064099788666e-02 -3.440683335065841675e-02 1.328275259584188461e-02 -1.512005738914012909e-02 -1.828371286392211914e-01 8.283548057079315186e-03 -8.274334669113159180e-02 -2.158007770776748657e-01 4.648959040641784668e-01 3.824467957019805908e-02 9.559581428766250610e-02 -6.496237963438034058e-02 -3.291947022080421448e-02 1.058469861745834351e-01 1.466387789696455002e-02 2.481744289398193359e-01 -6.727069616317749023e-01
-2.191512882709503174e-01 -1.669663488864898682e-01 -1.562974229454994202e-02 -1.936198398470878601e-02 2.014010213315486908e-02 -5.398355424404144287e-02 2.389941073488444090e-04 1.229343637824058533e-01 -6.009446457028388977e-02 2.748731076717376709e-01 2.710521817207336426e-01 -9.471830911934375763e-03 9.791615605354309082e-02 -2.700862288475036621e-01 -1.699594408273696899e-01 7.905256748199462891e-01 -3.477867245674133301e-01 -1.920015811920166016e-01 1.497523952275514603e-02 4.008977208286523819e-03
-2.096043080091476440e-01 5.108620971441268921e-02 1.212554201483726501e-01 1.200321242213249207e-01 -6.006134208291769028e-03 3.619043231010437012e-01 1.043361425399780273e-01 -4.367309808731079102e-02 3.358489573001861572e-01 -4.358987882733345032e-02 2.982822954654693604e-01 2.179540228098630905e-03 8.502054028213024139e-03 7.892330735921859741e-02 -4.574788361787796021e-02 5.153398029506206512e-03 -9.936048388481140137e-01 2.388787269592285156e-02 -6.007944699376821518e-03 1.097336225211620331e-02
1.646354347467422485e-01 -3.451207187026739120e-03 -4.252231717109680176e-01 1.703321933746337891e-01 -2.398799918591976166e-02 2.579968869686126709e-01 9.599691629409790039e-02 1.118077635765075684e-01 -2.299712039530277252e-02 1.855900324881076813e-02 1.862036138772964478e-01 -3.779608011245727539e-02 6.561274081468582153e-02 -2.822059988975524902e-01 -3.615019619464874268e-01 4.350775387138128281e-03 9.359422326087951660e-02 1.636085659265518188e-01 2.138478457927703857e-01 -5.826079845428466797e-01
3.718666732311248779e-02 -1.565665751695632935e-01 8.140272647142410278e-02 5.995603278279304504e-02 -7.541431784629821777e-01 -6.715268641710281372e-02 1.284858584403991699e-01 -1.975754052400588989e-01 6.962311863899230957e-01 -3.748635947704315186e-02 1.248717904090881348e-01 2.390693128108978271e-02 -2.347106859087944031e-02 5.033885315060615540e-02 1.967993974685668945e-01 -2.191512845456600189e-02 -1.480753868818283081e-01 1.299477461725473404e-02 -2.690042601898312569e-03 -2.061493927612900734e-03
9.098714590072631836e-02 -1.882857382297515869e-01 -2.541727013885974884e-02 4.936281964182853699e-02 5.728492140769958496e-02 1.600475236773490906e-02 1.266135722398757935e-01 1.254790872335433960e-01 8.543476462364196777e-02 -5.525275692343711853e-02 -2.175002098083496094e-01 1.705866605043411255e-01 2.364482432603836060e-01 -9.529864788055419922e-01 1.261767465621232986e-02 1.768304035067558289e-02 5.857881531119346619e-02 3.454659283161163330e-01 1.196744143962860107e-01 7.599909603595733643e-02
6.967615336179733276e-02 -1.708261519670486450e-01 3.116365373134613037e-01 3.863782063126564026e-02 -9.360765106976032257e-03 6.819531917572021484e-01 -3.045841753482818604e-01 -4.712638854980468750e-01 -3.919368982315063477e-02 1.209369674324989319e-01 4.150057211518287659e-03 -2.140919864177703857e-02 1.057340726256370544e-01 2.881125360727310181e-02 2.006838284432888031e-02 -1.857468858361244202e-02 -2.334533184766769409e-01 2.377177923917770386e-01 4.368039593100547791e-02 -3.908540122210979462e-03
-5.447964668273925781e-01 2.313368767499923706e-01 -3.341113403439521790e-02 2.581191360950469971e-01 -3.199039995670318604e-01 -1.975273527204990387e-02 -1.586369574069976807e-01 7.548441737890243530e-02 1.582220643758773804e-01 2.223030924797058105e-01 -3.315438702702522278e-02 2.166098505258560181e-01 -6.826876662671566010e-03 -1.740871369838714600e-01 -6.084049120545387268e-02 8.212313055992126465e-03 1.269094049930572510e-01 5.260989069938659668e-02 -5.962416529655456543e-02 3.087685443460941315e-03
1.543987393379211426e-01 5.613036453723907471e-02 -4.833685606718063354e-02 2.581297978758811951e-02 -2.519695647060871124e-02 3.418059647083282471e-02 -1.416263729333877563e-01 -3.465944901108741760e-02 2.788822948932647705e-01 3.651974797248840332e-01 5.395438638515770435e-04 -9.138486348092556000e-03 2.308612614870071411e-01 -4.093082845211029053e-01 -3.730706572532653809e-01 5.628636572510004044e-03 9.768705815076828003e-02 -1.879263371229171753e-01 9.163974225521087646e-02 -3.378639370203018188e-02
-1.626372151076793671e-02 1.497552990913391113e-01 -2.214182764291763306e-01 4.367184042930603027e-01 3.480240404605865479e-01 9.512164629995822906e-03 -2.130377106368541718e-02 1.001569777727127075e-01 9.918259456753730774e-03 -1.878262758255004883e-01 -1.391063164919614792e-02 1.977820880711078644e-02 -5.798459053039550781e-03 8.200134336948394775e-02 2.056851685047149658e-01 5.577589571475982666e-02 -2.970615029335021973e-01 -1.444201916456222534e-02 7.803881913423538208e-02 -6.521074771881103516e-01
1.738034635782241821e-01 2.601488726213574409e-03 -5.298941954970359802e-02 1.452629268169403076e-01 -5.770419258624315262e-03 3.033460117876529694e-02 -1.113198637962341309e+00 1.298898607492446899e-01 1.522110123187303543e-02 -6.194764748215675354e-02 1.541141271591186523e-01 2.427718490362167358e-01 7.967609167098999023e-02 1.286146342754364014e-01 -1.890403330326080322e-01 2.530277967453002930e-01 8.299645781517028809e-02 -2.514837980270385742e-01 7.032209634780883789e-02 7.976956665515899658e-03
-5.287741124629974365e-02 3.148740902543067932e-02 1.341175884008407593e-01 9.065847992897033691e-01 -1.856314949691295624e-02 1.303368341177701950e-02 -2.467739135026931763e-01 1.783492416143417358e-01 -2.974111214280128479e-02 2.804067134857177734e-01 -3.423063158988952637e-01 -1.870793104171752930e-02 -4.401566088199615479e-02 -3.064014762639999390e-02 4.877720493823289871e-03 -2.513087391853332520e-01 -1.334548145532608032e-01 -1.522375792264938354e-01 -6.840977072715759277e-02 1.355871907435357571e-03
-3.828771784901618958e-02 -4.497545361518859863e-01 -6.440056115388870239e-02 3.344244360923767090e-01 -8.592881262302398682e-03 -1.593672670423984528e-02 4.194149002432823181e-02 -8.009409904479980469e-02 1.380834728479385376e-02 -2.179536521434783936e-01 1.835843473672866821e-01 4.293499048799276352e-03 -8.978623151779174805e-02 8.143121376633644104e-03 2.181956321001052856e-01 8.670391887426376343e-02 4.747700318694114685e-02 6.258825063705444336e-01 -6.015845388174057007e-02 -1.053738668560981750e-01
1.122472211718559265e-01 1.687970161437988281e-01 -6.300745159387588501e-02 -6.690800935029983521e-02 1.998190954327583313e-02 4.405372217297554016e-02 -3.347055613994598389e-01 -3.740116953849792480e-02 7.546287178993225098e-01 -3.592959046363830566e-01 2.767050564289093018e-01 -2.004749327898025513e-01 1.141309067606925964e-01 -2.417994588613510132e-01 -2.456405013799667358e-02 -1.081706285476684570e-01 2.095759846270084381e-02 5.170358344912528992e-03 8.554329723119735718e-02 -3.677501808851957321e-03
5.120373517274856567e-02 4.142483174800872803e-01 -5.830368399620056152e-02 1.162010654807090759e-01 5.602703616023063660e-02 -4.865285754203796387e-02 -2.315382063388824463e-01 -3.860418796539306641e-01 3.386237919330596924e-01 1.763276904821395874e-01 -1.618732661008834839e-01 1.050040777772665024e-02 -9.736449271440505981e-02 -1.423344910144805908e-01 -2.226826697587966919e-01 2.794375419616699219e-01 -1.520207524299621582e-01 4.731263220310211182e-02 -9.489601850509643555e-02 1.568025350570678711e-02
-2.994740903377532959e-01 -2.484069615602493286e-01 1.202189624309539795e-01 1.895239204168319702e-01 -4.008445441722869873e-01 -1.742377504706382751e-02 -2.258695214986801147e-01 1.005080640316009521e-01 2.666279859840869904e-02 1.690987050533294678e-01 -6.529265642166137695e-02 2.048398703336715698e-01 5.384177714586257935e-02 -1.826855726540088654e-02 1.783106029033660889e-01 2.848882041871547699e-02 -1.858559623360633850e-02 -1.881266832351684570e-01 1.894482225179672241e-01 -1.720250584185123444e-02
1.217049285769462585e-01 -4.681611359119415283e-01 -3.584162518382072449e-02 -1.302481349557638168e-02 -1.063400730490684509e-01 7.941967248916625977e-02 3.340594470500946045e-02 3.021352291107177734e-01 1.849239319562911987e-01 4.494012296199798584e-01 -1.342603862285614014e-01 1.199989859014749527e-02 3.506592661142349243e-02 2.567331492900848389e-02 -4.020246565341949463e-01 -1.354221254587173462e-03 -1.292597949504852295e-01 -2.742461562156677246e-01 8.624690026044845581e-02 -3.437231108546257019e-02
-1.420664340257644653e-01 -8.502180129289627075e-02 -8.000461757183074951e-02 -2.961443550884723663e-02 -3.275820612907409668e-02 8.747972548007965088e-02 -8.184362947940826416e-02 3.233831226825714111e-01 8.523663133382797241e-02 -2.067077904939651489e-01 -5.371945500373840332e-01 1.287573110312223434e-02 -1.224740594625473022e-02 -2.947489963844418526e-03 3.574891984462738037e-01 2.619650363922119141e-01 -1.550331860780715942e-01 1.955271959304809570e-01 -2.657950669527053833e-02 -2.986268326640129089e-02
-4.604384005069732666e-01 5.759705323725938797e-03 -4.792442545294761658e-02 6.019864603877067566e-02 -3.681142255663871765e-02 8.817551657557487488e-03 5.543113499879837036e-02 2.767145037651062012e-01 7.278009783476591110e-03 -1.283088624477386475e-01 4.793905913829803467e-01 3.395942747592926025e-01 -2.250863239169120789e-02 -1.458089798688888550e-01 1.670219600200653076e-01 1.195757556706666946e-02 2.155407145619392395e-02 -4.536715447902679443e-01 -5.200376361608505249e-02 -2.472406439483165741e-02
8.861798048019409180e-02 -2.956769466400146484e-01 3.828206658363342285e-01 9.137664735317230225e-02 -4.612024128437042236e-02 9.188313968479633331e-03 -7.839603722095489502e-02 -4.806844294071197510e-01 1.304707210510969162e-02 -3.507643342018127441e-01 8.704778552055358887e-02 3.407112089917063713e-03 6.101425364613533020e-02 -1.042212322354316711e-01 2.945992946624755859e-01 1.477046310901641846e-01 3.997805342078208923e-02 1.621222496032714844e-02 8.004169166088104248e-02 -1.524778008460998535e-01
2.853134870529174805e-01 2.040185034275054932e-01 4.160212874412536621e-01 1.706719025969505310e-02 -2.641479298472404480e-02 9.193871170282363892e-02 7.836154848337173462e-02 -4.754770100116729736e-01 1.595135405659675598e-02 9.523206949234008789e-02 -2.863601148128509521e-01 5.136460438370704651e-02 -9.906919673085212708e-03 -1.473139077425003052e-01 -6.456071883440017700e-02 1.332727670669555664e-01 -5.334091186523437500e-02 -4.532254338264465332e-01 6.987910252064466476e-03 -3.782723471522331238e-02
-4.473775327205657959e-01 3.841895237565040588e-02 -7.740212976932525635e-02 -3.685957193374633789e-02 6.882065534591674805e-02 6.346371769905090332e-01 -1.088163033127784729e-01 1.948970183730125427e-02 6.136264652013778687e-02 1.289665251970291138e-01 7.875270396471023560e-02 2.148812860250473022e-01 -3.480780720710754395e-01 -9.304210543632507324e-02 1.465055197477340698e-01 -1.517131575383245945e-03 1.843293011188507080e-02 5.607099086046218872e-02 -3.259823024272918701e-01 -2.207485213875770569e-02
2.826321125030517578e-01 5.243967175483703613e-01 -2.994399666786193848e-01 9.821610152721405029e-02 -9.647630900144577026e-02 9.866272658109664917e-02 7.515086233615875244e-02 1.096175312995910645e-01 6.882900837808847427e-03 -5.078402757644653320e-01 -2.266711294651031494e-01 -6.913393735885620117e-03 6.922549754381179810e-02 -3.752719610929489136e-02 -6.117717921733856201e-02 8.658944815397262573e-02 -1.406408548355102539e-01 -4.116911813616752625e-02 6.153535097837448120e-02 1.908100768923759460e-02
2.579344511032104492e-01 -2.214197218418121338e-01 -2.977965772151947021e-01 1.501554399728775024e-01 -5.295665189623832703e-02 1.430852152407169342e-02 -6.281638145446777344e-02 -1.885439008474349976e-01 3.721148148179054260e-02 5.555233731865882874e-02 1.388734430074691772e-01 -6.220166105777025223e-03 -5.012352485209703445e-04 4.466345533728599548e-03 -4.512453675270080566e-01 1.825394108891487122e-02 -1.156273409724235535e-01 3.833105862140655518e-01 4.251398146152496338e-02 -2.548224292695522308e-02
2.744005024433135986e-01 5.147783160209655762e-01 -3.163709044456481934e-01 1.032875478267669678e-01 -2.289204597473144531e-01 6.683832406997680664e-02 5.327915027737617493e-02 1.082915961742401123e-01 7.752524688839912415e-03 -5.158880949020385742e-01 -2.253414541482925415e-01 -4.380627535283565521e-03 1.231580749154090881e-01 -6.795020401477813721e-02 -4.607845097780227661e-02 5.249967426061630249e-02 -1.232568919658660889e-01 -5.159341916441917419e-02 5.605418235063552856e-02 2.256353944540023804e-02
2.729631960391998291e-01 -2.031063437461853027e-01 -2.694450914859771729e-01 3.333191573619842529e-01 -2.881615608930587769e-02 -1.609261706471443176e-02 -1.007409989833831787e-01 -1.920033991336822510e-01 1.603722386062145233e-02 4.460546746850013733e-02 1.502628773450851440e-01 -1.083209924399852753e-02 2.154046855866909027e-02 -5.881455540657043457e-02 -4.287507534027099609e-01 7.932701148092746735e-03 -1.361007988452911377e-01 3.807739615440368652e-01 3.596862079575657845e-03 -2.835756354033946991e-02
2.934469878673553467e-01 2.070375233888626099e-01 4.179910719394683838e-01 2.849475480616092682e-02 -5.393863841891288757e-02 1.929413899779319763e-02 5.600082874298095703e-02 -4.513214230537414551e-01 3.174398839473724365e-02 9.799961745738983154e-02 -3.066260516643524170e-01 1.077212616801261902e-01 -4.800973460078239441e-03 -1.351689845323562622e-01 -3.875528648495674133e-02 1.546774506568908691e-01 -1.012896820902824402e-01 -4.792661666870117188e-01 -3.437664359807968140e-03 -2.881608530879020691e-02
-4.127804338932037354e-01 6.789223849773406982e-02 -2.868564054369926453e-02 -1.037862002849578857e-01 2.357621863484382629e-02 -5.103474855422973633e-02 -1.635740846395492554e-01 4.146772250533103943e-02 5.650730337947607040e-03 1.553625017404556274e-01 8.449056744575500488e-02 2.812634222209453583e-03 -2.777613997459411621e-01 -2.403031438589096069e-01 1.663074642419815063e-01 -2.424657531082630157e-02 -8.967359364032745361e-02 8.610956370830535889e-02 1.092954635620117188e+00 -2.718948014080524445e-02
-4.604776501655578613e-01 -1.926061697304248810e-02 -4.284285008907318115e-02 7.225604355335235596e-02 -1.620172895491123199e-02 1.374129652976989746e-01 8.872259408235549927e-02 2.517994046211242676e-01 1.811513118445873260e-02 -1.390938460826873779e-01 4.714868366718292236e-01 4.566049575805664062e-02 -2.353525906801223755e-02 -1.378949731588363647e-01 1.608781665563583374e-01 6.565880496054887772e-03 4.361232370138168335e-02 -4.634680151939392090e-01 -2.060578763484954834e-02 -2.644311636686325073e-02
7.802317291498184204e-02 -2.779777050018310547e-01 3.915277719497680664e-01 1.602120101451873779e-01 -9.835042059421539307e-02 3.453920129686594009e-03 -8.015556633472442627e-02 -4.723964929580688477e-01 -6.552448961883783340e-03 -3.432229161262512207e-01 9.784168750047683716e-02 -1.153276883997023106e-03 8.953978866338729858e-02 -1.168000623583793640e-01 3.182560801506042480e-01 8.847878873348236084e-02 3.637391328811645508e-02 1.697109639644622803e-02 4.551887139678001404e-02 -1.496487408876419067e-01
1.248513609170913696e-01 -4.532858431339263916e-01 -3.492448478937149048e-02 -2.546394057571887970e-02 -5.351707339286804199e-02 2.818393409252166748e-01 8.430678397417068481e-02 2.893626093864440918e-01 1.908773370087146759e-02 4.395748674869537354e-01 -1.206793785095214844e-01 2.010436728596687317e-02 3.241000324487686157e-02 3.374533727765083313e-02 -4.025563299655914307e-01 -5.242349579930305481e-03 -9.592396765947341919e-02 -2.688039541244506836e-01 5.134665220975875854e-02 -2.401647418737411499e-01
-1.614299565553665161e-01 -1.114076897501945496e-01 -9.582367539405822754e-02 -6.008822470903396606e-02 -3.138551861047744751e-02 2.962752990424633026e-02 -1.234940364956855774e-01 3.393024206161499023e-01 1.768606752157211304e-01 -1.943180263042449951e-01 -5.343219637870788574e-01 9.822857100516557693e-04 -7.235353346914052963e-03 -1.106751896440982819e-02 3.453307449817657471e-01 2.209255695343017578e-01 -1.042655706405639648e-01 2.080304622650146484e-01 -1.658839918673038483e-02 -1.234187651425600052e-02
-3.986876308917999268e-01 4.161361977458000183e-02 -3.811968863010406494e-02 -1.111579313874244690e-01 1.294351089745759964e-02 -4.810987412929534912e-02 -1.198468878865242004e-01 1.990776509046554565e-02 -5.292515736073255539e-03 1.290477961301803589e-01 9.140882641077041626e-02 3.668429795652627945e-03 1.116541981697082520e+00 -5.593245849013328552e-02 1.550000607967376709e-01 -2.633963339030742645e-02 -6.653823703527450562e-02 5.969952791929244995e-02 -2.407294660806655884e-01 -4.793109297752380371e-01
2.769123613834381104e-01 2.131858319044113159e-01 4.130588173866271973e-01 4.618111625313758850e-02 -7.041155826300382614e-03 4.917167127132415771e-02 8.423199504613876343e-02 -4.645132422447204590e-01 4.090977087616920471e-02 8.236844092607498169e-02 -3.130573928356170654e-01 3.854327276349067688e-02 2.099322853609919548e-03 -1.441425979137420654e-01 -6.506343185901641846e-02 1.102080419659614563e-01 -5.653908848762512207e-02 -4.557590484619140625e-01 1.577213779091835022e-02 -4.095909651368856430e-03
2.655206024646759033e-01 -1.923272162675857544e-01 -2.535309791564941406e-01 -1.248480007052421570e-02 -3.393823280930519104e-02 -6.170639395713806152e-02 -6.277631968259811401e-02 -1.383990645408630371e-01 -4.039893974550068378e-04 7.638199627399444580e-02 1.619601249694824219e-01 6.718900799751281738e-01 -3.718864917755126953e-02 -4.874657839536666870e-02 -4.005890190601348877e-01 -1.054603699594736099e-02 -1.619691997766494751e-01 3.661191165447235107e-01 -3.273762390017509460e-02 -6.949252448976039886e-03
2.569833695888519287e-01 5.129079818725585938e-01 -3.037796318531036377e-01 6.883070617914199829e-02 -2.918446958065032959e-01 2.666914463043212891e-01 7.874875515699386597e-02 1.070036888122558594e-01 -1.920242793858051300e-03 -5.165154337882995605e-01 -2.025438547134399414e-01 1.956390915438532829e-03 5.620786547660827637e-02 -4.169052466750144958e-02 -4.930394887924194336e-02 4.287386685609817505e-02 -5.150649324059486389e-02 -6.814218312501907349e-02 4.896879941225051880e-02 2.055448293685913086e-02
-1.415320038795471191e-01 -9.451430290937423706e-02 -9.673226624727249146e-02 -5.156341195106506348e-02 -3.046516515314579010e-02 4.414272680878639221e-02 -1.253447979688644409e-01 3.299323916435241699e-01 3.415597677230834961e-01 -2.037342488765716553e-01 -5.298590660095214844e-01 5.140207242220640182e-03 -3.383812261745333672e-03 -1.829523593187332153e-02 3.500699996948242188e-01 9.847550839185714722e-02 -8.923368901014328003e-02 1.875923722982406616e-01 -1.614849828183650970e-02 -4.612927790731191635e-03
1.092121303081512451e-01 -4.657563567161560059e-01 -4.041312262415885925e-02 -2.138273045420646667e-02 -6.690470129251480103e-02 7.747631520032882690e-02 6.336343288421630859e-02 2.896967530250549316e-01 2.486089020967483521e-01 4.452626407146453857e-01 -1.193019375205039978e-01 1.176711544394493103e-02 2.769041992723941803e-02 5.711890012025833130e-02 -4.015976786613464355e-01 -1.006999285891652107e-03 -8.167610317468643188e-02 -2.936023175716400146e-01 7.056087255477905273e-02 -3.157391548156738281e-01
7.634487003087997437e-02 -2.884840071201324463e-01 3.709054887294769287e-01 9.000026434659957886e-02 -7.414019852876663208e-02 2.051319554448127747e-02 -1.037512719631195068e-01 -4.792111217975616455e-01 -3.587304381653666496e-03 -3.481066524982452393e-01 9.796381741762161255e-02 -4.051074385643005371e-03 6.365134567022323608e-02 -7.933831959962844849e-02 3.092557787895202637e-01 1.775148659944534302e-01 5.620509758591651917e-02 1.329028047621250153e-02 5.682767927646636963e-02 -2.030250579118728638e-01
-4.570127725601196289e-01 -1.237722346559166908e-03 -5.636766925454139709e-02 2.175086140632629395e-01 -1.517196558415889740e-02 5.185731500387191772e-02 7.835307717323303223e-02 2.725556492805480957e-01 9.356936439871788025e-03 -1.148623675107955933e-01 4.572651088237762451e-01 2.888004109263420105e-02 -2.210738696157932281e-02 -1.349984109401702881e-01 1.575237363576889038e-01 1.016777846962213516e-02 2.831911668181419373e-02 -4.664003849029541016e-01 -1.491803955286741257e-02 -1.189178414642810822e-02
